digraph Tree {
node [shape=box] ;
0 [label="RM <= 7.164\nmse = 82.651\nsamples = 100\nvalue = 22.185"] ;
1 [label="RM <= 6.201\nmse = 47.878\nsamples = 93\nvalue = 20.544"] ;
0 -> 1 [labeldistance=2.5, labelangle=45, headlabel="True"] ;
2 [label="RM <= 5.517\nmse = 40.335\nsamples = 54\nvalue = 18.556"] ;
1 -> 2 ;
3 [label="RM <= 4.0\nmse = 21.745\nsamples = 8\nvalue = 13.1"] ;
2 -> 3 ;
4 [label="mse = 0.0\nsamples = 1\nvalue = 23.1"] ;
3 -> 4 ;
5 [label="RM <= 4.987\nmse = 8.525\nsamples = 7\nvalue = 11.671"] ;
3 -> 5 ;
6 [label="RM <= 4.938\nmse = 4.483\nsamples = 4\nvalue = 13.05"] ;
5 -> 6 ;
7 [label="RM <= 4.395\nmse = 1.842\nsamples = 3\nvalue = 12.033"] ;
6 -> 7 ;
8 [label="mse = 0.0\nsamples = 1\nvalue = 13.8"] ;
7 -> 8 ;
9 [label="mse = 0.423\nsamples = 2\nvalue = 11.15"] ;
7 -> 9 ;
10 [label="mse = 0.0\nsamples = 1\nvalue = 16.1"] ;
6 -> 10 ;
11 [label="RM <= 5.388\nmse = 8.002\nsamples = 3\nvalue = 9.833"] ;
5 -> 11 ;
12 [label="RM <= 5.174\nmse = 0.203\nsamples = 2\nvalue = 7.85"] ;
11 -> 12 ;
13 [label="mse = 0.0\nsamples = 1\nvalue = 7.4"] ;
12 -> 13 ;
14 [label="mse = 0.0\nsamples = 1\nvalue = 8.3"] ;
12 -> 14 ;
15 [label="mse = -0.0\nsamples = 1\nvalue = 13.8"] ;
11 -> 15 ;
16 [label="RM <= 5.676\nmse = 37.491\nsamples = 46\nvalue = 19.504"] ;
2 -> 16 ;
17 [label="RM <= 5.639\nmse = 5.76\nsamples = 2\nvalue = 25.5"] ;
16 -> 17 ;
18 [label="mse = 0.0\nsamples = 1\nvalue = 27.9"] ;
17 -> 18 ;
19 [label="mse = 0.0\nsamples = 1\nvalue = 23.1"] ;
17 -> 19 ;
20 [label="RM <= 5.843\nmse = 37.225\nsamples = 44\nvalue = 19.232"] ;
16 -> 20 ;
21 [label="RM <= 5.836\nmse = 7.581\nsamples = 13\nvalue = 17.746"] ;
20 -> 21 ;
22 [label="RM <= 5.771\nmse = 3.072\nsamples = 12\nvalue = 18.375"] ;
21 -> 22 ;
23 [label="mse = 3.433\nsamples = 7\nvalue = 17.886"] ;
22 -> 23 ;
24 [label="mse = 1.762\nsamples = 5\nvalue = 19.06"] ;
22 -> 24 ;
25 [label="mse = 0.0\nsamples = 1\nvalue = 10.2"] ;
21 -> 25 ;
26 [label="RM <= 5.878\nmse = 48.343\nsamples = 31\nvalue = 19.855"] ;
20 -> 26 ;
27 [label="RM <= 5.862\nmse = 210.25\nsamples = 2\nvalue = 35.5"] ;
26 -> 27 ;
28 [label="mse = 0.0\nsamples = 1\nvalue = 21.0"] ;
27 -> 28 ;
29 [label="mse = 0.0\nsamples = 1\nvalue = 50.0"] ;
27 -> 29 ;
30 [label="RM <= 6.148\nmse = 19.132\nsamples = 29\nvalue = 18.776"] ;
26 -> 30 ;
31 [label="mse = 19.451\nsamples = 25\nvalue = 19.184"] ;
30 -> 31 ;
32 [label="mse = 9.592\nsamples = 4\nvalue = 16.225"] ;
30 -> 32 ;
33 [label="RM <= 6.221\nmse = 45.267\nsamples = 39\nvalue = 23.297"] ;
1 -> 33 ;
34 [label="mse = 0.0\nsamples = 1\nvalue = 50.0"] ;
33 -> 34 ;
35 [label="RM <= 6.692\nmse = 27.201\nsamples = 38\nvalue = 22.595"] ;
33 -> 35 ;
36 [label="RM <= 6.618\nmse = 22.769\nsamples = 31\nvalue = 21.348"] ;
35 -> 36 ;
37 [label="RM <= 6.543\nmse = 20.563\nsamples = 28\nvalue = 22.0"] ;
36 -> 37 ;
38 [label="RM <= 6.518\nmse = 14.169\nsamples = 24\nvalue = 20.917"] ;
37 -> 38 ;
39 [label="mse = 12.197\nsamples = 22\nvalue = 21.427"] ;
38 -> 39 ;
40 [label="mse = 1.44\nsamples = 2\nvalue = 15.3"] ;
38 -> 40 ;
41 [label="RM <= 6.581\nmse = 9.635\nsamples = 4\nvalue = 28.5"] ;
37 -> 41 ;
42 [label="mse = 0.829\nsamples = 3\nvalue = 30.233"] ;
41 -> 42 ;
43 [label="mse = 0.0\nsamples = 1\nvalue = 23.3"] ;
41 -> 43 ;
44 [label="RM <= 6.656\nmse = 2.409\nsamples = 3\nvalue = 15.267"] ;
36 -> 44 ;
45 [label="RM <= 6.642\nmse = 0.81\nsamples = 2\nvalue = 14.3"] ;
44 -> 45 ;
46 [label="mse = 0.0\nsamples = 1\nvalue = 13.4"] ;
45 -> 46 ;
47 [label="mse = 0.0\nsamples = 1\nvalue = 15.2"] ;
45 -> 47 ;
48 [label="mse = 0.0\nsamples = 1\nvalue = 17.2"] ;
44 -> 48 ;
49 [label="RM <= 6.872\nmse = 9.484\nsamples = 7\nvalue = 28.114"] ;
35 -> 49 ;
50 [label="RM <= 6.739\nmse = 2.792\nsamples = 4\nvalue = 25.875"] ;
49 -> 50 ;
51 [label="mse = 0.0\nsamples = 1\nvalue = 27.5"] ;
50 -> 51 ;
52 [label="RM <= 6.801\nmse = 2.549\nsamples = 3\nvalue = 25.333"] ;
50 -> 52 ;
53 [label="mse = 0.0\nsamples = 1\nvalue = 23.7"] ;
52 -> 53 ;
54 [label="mse = 1.823\nsamples = 2\nvalue = 26.15"] ;
52 -> 54 ;
55 [label="RM <= 7.011\nmse = 2.807\nsamples = 3\nvalue = 31.1"] ;
49 -> 55 ;
56 [label="RM <= 6.928\nmse = 0.903\nsamples = 2\nvalue = 32.15"] ;
55 -> 56 ;
57 [label="mse = 0.0\nsamples = 1\nvalue = 31.2"] ;
56 -> 57 ;
58 [label="mse = 0.0\nsamples = 1\nvalue = 33.1"] ;
56 -> 58 ;
59 [label="mse = 0.0\nsamples = 1\nvalue = 29.0"] ;
55 -> 59 ;
60 [label="RM <= 7.545\nmse = 33.593\nsamples = 7\nvalue = 43.986"] ;
0 -> 60 [labeldistance=2.5, labelangle=-45, headlabel="False"] ;
61 [label="mse = 0.0\nsamples = 1\nvalue = 33.3"] ;
60 -> 61 ;
62 [label="RM <= 7.936\nmse = 16.989\nsamples = 6\nvalue = 45.767"] ;
60 -> 62 ;
63 [label="mse = 0.0\nsamples = 1\nvalue = 50.0"] ;
62 -> 63 ;
64 [label="RM <= 8.158\nmse = 16.086\nsamples = 5\nvalue = 44.92"] ;
62 -> 64 ;
65 [label="mse = 0.0\nsamples = 1\nvalue = 38.7"] ;
64 -> 65 ;
66 [label="RM <= 8.496\nmse = 8.017\nsamples = 4\nvalue = 46.475"] ;
64 -> 66 ;
67 [label="RM <= 8.253\nmse = 5.167\nsamples = 3\nvalue = 45.3"] ;
66 -> 67 ;
68 [label="mse = 0.0\nsamples = 1\nvalue = 48.3"] ;
67 -> 68 ;
69 [label="RM <= 8.262\nmse = 1.0\nsamples = 2\nvalue = 43.8"] ;
67 -> 69 ;
70 [label="mse = 0.0\nsamples = 1\nvalue = 42.8"] ;
69 -> 70 ;
71 [label="mse = -0.0\nsamples = 1\nvalue = 44.8"] ;
69 -> 71 ;
72 [label="mse = -0.0\nsamples = 1\nvalue = 50.0"] ;
66 -> 72 ;
}