digraph Tree {
node [shape=box] ;
0 [label="RM <= 7.164\nmse = 82.651\nsamples = 100\nvalue = 22.185"] ;
1 [label="RM <= 6.201\nmse = 47.878\nsamples = 93\nvalue = 20.544"] ;
0 -> 1 [labeldistance=2.5, labelangle=45, headlabel="True"] ;
2 [label="mse = 40.335\nsamples = 54\nvalue = 18.556"] ;
1 -> 2 ;
3 [label="mse = 45.267\nsamples = 39\nvalue = 23.297"] ;
1 -> 3 ;
4 [label="RM <= 7.545\nmse = 33.593\nsamples = 7\nvalue = 43.986"] ;
0 -> 4 [labeldistance=2.5, labelangle=-45, headlabel="False"] ;
5 [label="mse = 0.0\nsamples = 1\nvalue = 33.3"] ;
4 -> 5 ;
6 [label="mse = 16.989\nsamples = 6\nvalue = 45.767"] ;
4 -> 6 ;
}